svm_type c_svc
kernel_type rbf
gamma 0.16666666666666666
nr_class 4
total_sv 74
rho -0.861769094208202 -0.7283070680497925 -0.5981724375112238 0.181035449311802 0.4964232974818499 0.46660417206852317
label 0 2 3 1
probA -3.6485595355337814 -5.923510872418519 -1.6289141746633171 -1.7785372647329984 -3.199631177587855 0.7519184491014638
probB 1.1605230870247252 2.9827762255948516 -0.030250759003707536 -0.11080210024444248 -0.7702437639421112 1.1993799752741707
nr_sv 41 8 8 17
SV
0.40888360117804495 0.014914936134704985 0.0 1:0.0 2:1.0 3:32.0 4:0.0 5:1.0 6:0.0 
0.17292204669826292 0.114954442698911 1.0 1:0.0 2:0.0 3:32.0 4:2.0 5:1.0 6:1.0 
0.43795902157082867 0.2170788358922774 0.38699487257490806 1:0.0 2:3.0 3:33.0 4:0.0 5:1.0 6:1.0 
0.29146753946864284 0.15281034529354623 0.182849222327585 1:0.0 2:0.0 3:33.0 4:0.0 5:0.0 6:1.0 
0.08366382669552218 0.6938989228981934 0.07493880408123799 1:0.0 2:2.0 3:24.0 4:1.0 5:1.0 6:1.0 
0.0859139501197693 0.028884517479765736 0.030999672514140215 1:0.0 2:1.0 3:28.0 4:0.0 5:0.0 6:1.0 
0.11028094384893422 0.23223095293751464 0.34655592980458994 1:6.0 2:1.0 3:27.0 4:0.0 5:0.0 6:1.0 
0.13742622225184298 0.26975808081937214 0.3992917250465299 1:0.0 2:1.0 3:16.0 4:7.0 5:0.0 6:1.0 
0.13780798531955218 0.323820570973626 0.4044644313806655 1:0.0 2:0.0 3:47.0 4:6.0 5:0.0 6:1.0 
0.4485884113156274 0.0 0.0032445405909621227 1:0.0 2:1.0 3:33.0 4:0.0 5:0.0 6:1.0 
0.1373655627224265 0.31831274422812117 0.41120669298450346 1:5.0 2:0.0 3:45.0 4:0.0 5:0.0 6:1.0 
0.29956746798017375 0.0 0.07726111333769818 1:0.0 2:2.0 3:25.0 4:3.0 5:1.0 6:1.0 
0.11307677482556062 0.08425610011680872 0.7131743870706752 1:0.0 2:4.0 3:40.0 4:0.0 5:0.0 6:1.0 
0.10915507291048854 1.0 1.0 1:0.0 2:2.0 3:42.0 4:0.0 5:0.0 6:1.0 
0.0 0.0 0.7657277828920339 1:0.0 2:1.0 3:25.0 4:0.0 5:1.0 6:1.0 
0.8790703277029502 0.009553742690109515 0.6482287433474089 1:0.0 2:0.0 3:30.0 4:2.0 5:1.0 6:1.0 
0.06369646771930214 0.14945052605159742 0.666567551389429 1:2.0 2:0.0 3:30.0 4:3.0 5:0.0 6:1.0 
0.11060192172358674 0.306016048099415 0.32698341600231423 1:0.0 2:1.0 3:20.0 4:3.0 5:0.0 6:1.0 
0.1383965429319714 0.26947185924009137 0.4045344509180378 1:1.0 2:0.0 3:28.0 4:9.0 5:0.0 6:1.0 
0.0 0.08554328286440768 0.3184812362806418 1:0.0 2:0.0 3:28.0 4:0.0 5:0.0 6:1.0 
0.13832038083723366 0.2717167738157333 0.40178646563281634 1:0.0 2:0.0 3:10.0 4:0.0 5:0.0 6:1.0 
0.0 0.0 0.6549563066457157 1:0.0 2:0.0 3:30.0 4:1.0 5:0.0 6:1.0 
0.6297579224476691 0.17633946050597488 0.27398579224577435 1:0.0 2:3.0 3:28.0 4:2.0 5:1.0 6:1.0 
0.07346490323901964 0.0 0.0 1:0.0 2:0.0 3:29.0 4:1.0 5:0.0 6:1.0 
0.05258408304044497 0.09721850765539891 0.4263505057937526 1:0.0 2:0.0 3:50.0 4:1.0 5:1.0 6:1.0 
0.001152303528907661 0.015468879928285162 1.0 1:0.0 2:0.0 3:50.0 4:1.0 5:0.0 6:1.0 
0.05156139046081215 0.0998339876905525 0.8621965356127974 1:2.0 2:0.0 3:50.0 4:1.0 5:0.0 6:1.0 
0.0 0.0 0.10477372023604781 1:0.0 2:0.0 3:25.0 4:1.0 5:1.0 6:1.0 
0.0 0.030333789264469266 0.0 1:0.0 2:0.0 3:28.0 4:1.0 5:1.0 6:1.0 
0.3964582423659534 0.2714589483681889 0.4017295278142822 1:0.0 2:1.0 3:38.0 4:11.0 5:1.0 6:1.0 
0.1222776980212529 0.21188728710438773 0.3360537309379868 1:0.0 2:4.0 3:20.0 4:4.0 5:0.0 6:1.0 
0.13834173487617463 0.27210006378205903 0.4017808210295287 1:0.0 2:1.0 3:21.0 4:20.0 5:1.0 6:1.0 
0.02373685834861931 0.22811554448866614 0.34590010868996207 1:0.0 2:1.0 3:25.0 4:5.0 5:1.0 6:1.0 
0.05431845562029662 0.10908520915830232 0.01617986425026279 1:2.0 2:0.0 3:50.0 4:0.0 5:1.0 6:1.0 
0.053716712941911854 0.32149698172677404 0.43094445812207527 1:0.0 2:0.0 3:50.0 4:0.0 5:0.0 6:1.0 
0.08812730874752797 0.06517068149991463 0.9157448102622388 1:0.0 2:0.0 3:30.0 4:0.0 5:1.0 6:1.0 
0.0765417613702027 0.8597536513117392 0.29695333252033046 1:0.0 2:0.0 3:24.0 4:0.0 5:0.0 6:1.0 
0.11133832998226376 0.20744972486762947 0.3151950600849726 1:4.0 2:2.0 3:25.0 4:1.0 5:1.0 6:1.0 
0.443168300763235 0.3271571161772181 0.3189920234299048 1:0.0 2:4.0 3:25.0 4:0.0 5:1.0 6:1.0 
0.379289926424987 0.14746461721774107 0.05013786906622876 1:3.0 2:0.0 3:30.0 4:1.0 5:0.0 6:1.0 
1.0 0.01699286701850274 0.019537122316658925 1:0.0 2:1.0 3:30.0 4:0.0 5:1.0 6:1.0 
-1.0 1.0 1.0 1:0.0 2:4.0 3:25.0 4:2.0 5:0.0 6:1.0 
-1.0 0.7224857733086972 1.0 1:0.0 2:0.0 3:30.0 4:1.0 5:1.0 6:1.0 
-1.0 0.0 0.7682798842822376 1:1.0 2:2.0 3:30.0 4:1.0 5:1.0 6:1.0 
-1.0 0.7537100388467544 0.9990277957234712 1:1.0 2:2.0 3:30.0 4:1.0 5:1.0 6:1.0 
-1.0 0.686051224493908 0.9511780685490978 1:0.0 2:1.0 3:38.0 4:7.0 5:1.0 6:1.0 
-1.0 1.0 1.0 1:0.0 2:0.0 3:36.0 4:1.0 5:1.0 6:1.0 
-1.0 0.803462770200817 1.0 1:0.0 2:1.0 3:33.0 4:0.0 5:1.0 6:1.0 
-1.0 0.6891228555263531 0.8230349319121789 1:0.0 2:2.0 3:38.0 4:8.0 5:1.0 6:1.0 
-1.0 -0.6651767175678034 1.0 1:0.0 2:0.0 3:22.0 4:0.0 5:0.0 6:1.0 
-1.0 -0.4357667888471715 1.0 1:0.0 2:0.0 3:42.0 4:1.0 5:1.0 6:1.0 
-1.0 -0.7779384544420146 1.0 1:0.0 2:0.0 3:47.0 4:0.0 5:0.0 6:1.0 
-1.0 -0.6561488866828159 1.0 1:0.0 2:0.0 3:44.0 4:3.0 5:0.0 6:1.0 
-1.0 -0.8185742985038544 1.0 1:0.0 2:0.0 3:57.0 4:0.0 5:0.0 6:1.0 
-1.0 -0.854983940005404 1.0 1:0.0 2:2.0 3:24.0 4:0.0 5:1.0 6:0.0 
-1.0 -0.6276480413461281 1.0 1:2.0 2:1.0 3:42.0 4:0.0 5:1.0 6:1.0 
-1.0 -0.8185955349813379 1.0 1:0.0 2:7.0 3:57.0 4:0.0 5:1.0 6:1.0 
-0.6583583431115994 -0.12479459276193014 -0.0 1:0.0 2:0.0 3:61.0 4:1.0 5:0.0 6:1.0 
-1.0 -0.5892359132554132 -1.0 1:0.0 2:1.0 3:25.0 4:0.0 5:1.0 6:0.0 
-1.0 -0.0 -0.0 1:0.0 2:1.0 3:40.0 4:0.0 5:0.0 6:1.0 
-1.0 -0.45281199457128757 -0.495566734216278 1:0.0 2:0.0 3:61.0 4:4.0 5:0.0 6:1.0 
-1.0 -0.6882685724126851 -0.3186281126414513 1:0.0 2:0.0 3:32.0 4:3.0 5:1.0 6:1.0 
-0.9077215704726108 -0.21017544880682018 -1.0 1:1.0 2:0.0 3:42.0 4:1.0 5:1.0 6:1.0 
-1.0 -1.0 -0.4089648127145773 1:0.0 2:0.0 3:30.0 4:0.0 5:1.0 6:1.0 
-1.0 -0.2735504913047627 -0.28907429878671637 1:1.0 2:0.0 3:50.0 4:1.0 5:0.0 6:1.0 
-1.0 -0.27213216911905896 -0.479455751445865 1:0.0 2:0.0 3:50.0 4:1.0 5:0.0 6:1.0 
-1.0 -0.38748484209988987 -0.7275668145105936 1:0.0 2:0.0 3:60.0 4:0.0 5:0.0 6:1.0 
-0.8168393988238158 -0.17433419811098627 -0.8454178681743735 1:0.0 2:1.0 3:42.0 4:3.0 5:0.0 6:1.0 
-1.0 -0.3136062114318158 -0.3736437295104628 1:0.0 2:0.0 3:30.0 4:4.0 5:0.0 6:1.0 
-1.0 -0.4802663456225523 -0.2518659755508777 1:0.0 2:0.0 3:40.0 4:4.0 5:0.0 6:1.0 
-1.0 -1.0 -0.07765746636313627 1:0.0 2:0.0 3:30.0 4:1.0 5:0.0 6:1.0 
-0.35178331482667147 -0.34047405334684067 -0.49321486927350466 1:0.0 2:0.0 3:40.0 4:0.0 5:0.0 6:1.0 
-1.0 -0.9279980997051891 -0.5092988994168762 1:0.0 2:2.0 3:36.0 4:2.0 5:0.0 6:1.0 
-1.0 -0.3063877479177536 -0.7296446673952873 1:0.0 2:2.0 3:42.0 4:0.0 5:0.0 6:1.0 
