svm_type c_svc
kernel_type rbf
gamma 0.0625
nr_class 3
total_sv 341
rho -1.122 -0.890829 0.57654
label 0 1 2
nr_sv 150 86 105
SV
0.6031048704248347 1 1:0 2:2 3:0 4:0 5:0 6:0 7:1 8:1 9:0 10:0 11:0 12:0 13:1 14:0 15:0 16:1 
1 1 1:0 2:2 3:0 4:0 5:0 6:0 7:1 8:1 9:0 10:0 11:0 12:0 13:1 14:0 15:0 16:1 
0.1743909084911562 1 1:0 2:2 3:0 4:0 5:0 6:0 7:1 8:1 9:0 10:0 11:0 12:0 13:1 14:0 15:0 16:1 
0.3135528781551564 0.6004062334920701 1:0 2:1 3:1 4:0 5:0 6:0 7:0 8:1 9:0 10:0 11:1 12:0 13:0 14:1 15:1 16:1 
0.1435146189402391 0.3271477661213972 1:0 2:0 3:1 4:1 5:0 6:1 7:0 8:0 9:0 10:0 11:1 12:0 13:1 14:1 15:1 16:1 
0.9745411670971159 0.9978241534709524 1:0 2:0 3:1 4:1 5:0 6:1 7:0 8:0 9:0 10:0 11:1 12:0 13:1 14:1 15:1 16:1 
1 1 1:0 2:1 3:1 4:0 5:0 6:0 7:0 8:1 9:0 10:0 11:1 12:0 13:1 14:1 15:0 16:1 
1 1 1:0 2:1 3:1 4:1 5:0 6:1 7:0 8:1 9:0 10:0 11:1 12:0 13:1 14:1 15:0 16:1 
1 1 1:0 2:1 3:1 4:1 5:0 6:1 7:0 8:1 9:0 10:0 11:1 12:0 13:1 14:1 15:0 16:1 
1 1 1:0 2:1 3:1 4:1 5:0 6:1 7:0 8:1 9:0 10:0 11:1 12:0 13:1 14:1 15:0 16:1 
0 1 1:0 2:0 3:0 4:0 5:0 6:0 7:0 8:0 9:0 10:1 11:0 12:0 13:0 14:1 15:1 16:1 
0 1 1:0 2:0 3:0 4:0 5:0 6:0 7:0 8:0 9:0 10:1 11:0 12:0 13:0 14:1 15:1 16:1 
0 1 1:0 2:0 3:0 4:0 5:0 6:0 7:0 8:0 9:0 10:1 11:0 12:0 13:0 14:1 15:1 16:1 
1 1 1:0 2:2 3:0 4:0 5:0 6:0 7:0 8:1 9:0 10:0 11:0 12:0 13:0 14:1 15:0 16:1 
1 1 1:0 2:1 3:0 4:2 5:0 6:1 7:0 8:1 9:0 10:0 11:0 12:0 13:0 14:1 15:0 16:1 
1 1 1:0 2:1 3:0 4:2 5:0 6:1 7:0 8:1 9:0 10:0 11:0 12:0 13:0 14:1 15:0 16:1 
1 0.7231156936169028 1:0 2:1 3:0 4:2 5:0 6:1 7:0 8:1 9:0 10:0 11:0 12:0 13:0 14:1 15:0 16:1 
0.5152119894847625 0 1:0 2:1 3:1 4:0 5:0 6:0 7:0 8:1 9:0 10:0 11:2 12:0 13:0 14:1 15:0 16:1 
0 1 1:0 2:0 3:1 4:0 5:0 6:0 7:0 8:0 9:0 10:0 11:1 12:0 13:0 14:1 15:1 16:1 
0 1 1:0 2:0 3:1 4:0 5:0 6:0 7:0 8:0 9:0 10:0 11:1 12:0 13:0 14:1 15:1 16:1 
1 1 1:0 2:1 3:0 4:0 5:0 6:0 7:0 8:1 9:0 10:0 11:0 12:0 13:0 14:1 15:0 16:1 
1 1 1:0 2:2 3:0 4:0 5:0 6:0 7:0 8:1 9:0 10:0 11:0 12:0 13:0 14:1 15:0 16:1 
0 1 1:0 2:0 3:0 4:2 5:0 6:1 7:0 8:0 9:0 10:1 11:0 12:0 13:0 14:1 15:1 16:1 
0 0.590213635772792 1:0 2:0 3:0 4:2 5:0 6:1 7:0 8:0 9:0 10:1 11:0 12:0 13:0 14:1 15:1 16:1 
0 1 1:0 2:0 3:1 4:0 5:0 6:0 7:0 8:0 9:0 10:1 11:2 12:0 13:0 14:1 15:1 16:1 
0 1 1:0 2:0 3:1 4:0 5:0 6:0 7:0 8:0 9:0 10:1 11:2 12:0 13:0 14:1 15:1 16:1 
0 0.3575727099928631 1:0 2:0 3:1 4:0 5:0 6:0 7:0 8:0 9:0 10:1 11:2 12:0 13:0 14:1 15:0 16:1 
0 1 1:0 2:0 3:1 4:0 5:0 6:0 7:0 8:0 9:0 10:1 11:2 12:0 13:0 14:1 15:1 16:1 
1 0 1:0 2:2 3:1 4:0 5:0 6:0 7:0 8:1 9:0 10:0 11:2 12:1 13:1 14:1 15:0 16:1 
1 0 1:0 2:2 3:1 4:0 5:1 6:0 7:0 8:1 9:1 10:0 11:1 12:1 13:1 14:1 15:0 16:1 
1 1 1:0 2:2 3:1 4:0 5:0 6:0 7:0 8:1 9:0 10:0 11:2 12:0 13:1 14:1 15:0 16:1 
1 0 1:0 2:2 3:1 4:0 5:1 6:0 7:1 8:1 9:1 10:0 11:2 12:0 13:1 14:1 15:0 16:1 
1 0 1:0 2:1 3:0 4:0 5:0 6:0 7:0 8:2 9:0 10:1 11:0 12:0 13:0 14:1 15:1 16:1 
1 1 1:0 2:1 3:0 4:0 5:0 6:0 7:0 8:2 9:0 10:1 11:0 12:0 13:0 14:1 15:1 16:1 
1 0.8270596118020659 1:0 2:1 3:0 4:0 5:0 6:0 7:0 8:2 9:0 10:1 11:0 12:0 13:0 14:1 15:1 16:1 
1 0 1:0 2:1 3:1 4:0 5:0 6:0 7:0 8:1 9:0 10:0 11:1 12:0 13:0 14:1 15:0 16:1 
1 0 1:0 2:1 3:1 4:0 5:0 6:0 7:0 8:1 9:0 10:0 11:1 12:0 13:0 14:1 15:0 16:1 
1 0 1:0 2:1 3:1 4:0 5:0 6:0 7:0 8:1 9:0 10:0 11:1 12:0 13:0 14:1 15:0 16:1 
1 0.8018121616161962 1:0 2:1 3:1 4:0 5:0 6:0 7:0 8:1 9:0 10:0 11:1 12:0 13:0 14:1 15:0 16:1 
1 1 1:0 2:1 3:1 4:0 5:0 6:0 7:0 8:1 9:0 10:0 11:1 12:0 13:0 14:1 15:0 16:1 
1 1 1:0 2:2 3:0 4:0 5:0 6:0 7:0 8:1 9:0 10:1 11:0 12:0 13:0 14:1 15:1 16:1 
1 1 1:0 2:1 3:0 4:0 5:0 6:0 7:0 8:1 9:0 10:1 11:0 12:0 13:0 14:1 15:1 16:1 
1 1 1:0 2:2 3:0 4:0 5:1 6:0 7:0 8:1 9:1 10:0 11:0 12:0 13:1 14:1 15:0 16:1 
1 0.7853685108728443 1:0 2:2 3:0 4:0 5:1 6:0 7:1 8:1 9:1 10:0 11:0 12:0 13:1 14:1 15:0 16:1 
1 1 1:0 2:0 3:1 4:0 5:0 6:0 7:0 8:0 9:0 10:0 11:1 12:0 13:1 14:1 15:0 16:1 
0.7664333544304535 0.2190053946086005 1:0 2:0 3:1 4:0 5:0 6:0 7:0 8:0 9:0 10:0 11:2 12:0 13:1 14:1 15:0 16:1 
0 1 1:0 2:0 3:2 4:1 5:0 6:1 7:0 8:0 9:0 10:0 11:2 12:1 13:0 14:1 15:1 16:1 
0 1 1:0 2:0 3:2 4:1 5:0 6:1 7:0 8:0 9:0 10:0 11:2 12:1 13:0 14:1 15:1 16:1 
1 1 1:0 2:1 3:1 4:0 5:0 6:0 7:0 8:1 9:0 10:0 11:1 12:0 13:0 14:1 15:0 16:1 
1 1 1:0 2:1 3:0 4:0 5:0 6:0 7:0 8:1 9:0 10:0 11:0 12:0 13:1 14:0 15:0 16:1 
1 0.8113858311093596 1:0 2:1 3:0 4:0 5:1 6:0 7:0 8:1 9:1 10:0 11:0 12:0 13:1 14:0 15:0 16:1 
1 1 1:0 2:1 3:0 4:0 5:0 6:0 7:0 8:1 9:0 10:0 11:0 12:0 13:1 14:0 15:0 16:1 
1 1 1:0 2:1 3:0 4:0 5:0 6:0 7:0 8:1 9:0 10:1 11:0 12:0 13:0 14:1 15:0 16:1 
1 1 1:0 2:1 3:0 4:0 5:0 6:0 7:0 8:1 9:0 10:1 11:0 12:0 13:0 14:1 15:0 16:1 
0 1 1:0 2:0 3:1 4:0 5:0 6:0 7:0 8:0 9:0 10:1 11:2 12:0 13:0 14:1 15:0 16:1 
0 1 1:0 2:0 3:1 4:0 5:0 6:0 7:0 8:0 9:0 10:1 11:2 12:0 13:0 14:1 15:0 16:1 
0 1 1:0 2:0 3:1 4:0 5:0 6:0 7:0 8:0 9:0 10:1 11:2 12:0 13:0 14:1 15:0 16:1 
0 0.4786927524719687 1:0 2:0 3:2 4:0 5:0 6:0 7:1 8:0 9:0 10:0 11:2 12:1 13:1 14:1 15:1 16:1 
0 0.2491160606529219 1:0 2:0 3:2 4:0 5:0 6:0 7:0 8:0 9:0 10:0 11:2 12:1 13:1 14:1 15:1 16:1 
1 0.0966727845132047 1:0 2:0 3:1 4:1 5:1 6:1 7:0 8:0 9:1 10:1 11:1 12:0 13:1 14:1 15:0 16:1 
1 1 1:0 2:0 3:1 4:1 5:0 6:1 7:0 8:0 9:0 10:1 11:1 12:0 13:1 14:1 15:0 16:1 
0 1 1:0 2:0 3:0 4:0 5:0 6:0 7:0 8:0 9:0 10:0 11:0 12:0 13:1 14:1 15:1 16:1 
0 1 1:0 2:0 3:0 4:0 5:0 6:0 7:0 8:0 9:0 10:0 11:0 12:0 13:1 14:1 15:1 16:1 
0 0.7074523386066603 1:0 2:0 3:1 4:1 5:0 6:1 7:0 8:0 9:0 10:0 11:2 12:0 13:0 14:1 15:0 16:1 
1 0.8547666330351757 1:0 2:0 3:1 4:0 5:0 6:0 7:0 8:0 9:0 10:0 11:1 12:1 13:0 14:1 15:0 16:1 
0 0.01090805981903712 1:0 2:0 3:0 4:0 5:0 6:0 7:0 8:0 9:0 10:0 11:0 12:0 13:0 14:1 15:1 16:1 
1 1 1:0 2:0 3:0 4:0 5:0 6:0 7:0 8:0 9:0 10:0 11:0 12:0 13:0 14:1 15:0 16:1 
1 1 1:0 2:0 3:0 4:0 5:0 6:0 7:0 8:0 9:0 10:0 11:0 12:0 13:0 14:1 15:0 16:1 
1 1 1:0 2:0 3:0 4:0 5:0 6:0 7:0 8:0 9:0 10:0 11:0 12:0 13:0 14:1 15:0 16:1 
0.5902235095117048 0.1668761035233801 1:0 2:0 3:1 4:0 5:0 6:0 7:0 8:0 9:0 10:0 11:1 12:1 13:0 14:1 15:1 16:1 
0 1 1:0 2:0 3:1 4:1 5:0 6:1 7:0 8:0 9:0 10:1 11:1 12:0 13:0 14:1 15:0 16:1 
0 1 1:0 2:0 3:1 4:1 5:0 6:1 7:0 8:0 9:0 10:1 11:1 12:0 13:0 14:1 15:0 16:1 
0 1 1:0 2:0 3:1 4:1 5:0 6:1 7:0 8:0 9:0 10:1 11:1 12:0 13:0 14:1 15:0 16:1 
0 1 1:0 2:0 3:1 4:1 5:0 6:1 7:0 8:0 9:0 10:1 11:1 12:0 13:0 14:1 15:0 16:1 
1 1 1:0 2:2 3:1 4:0 5:0 6:0 7:0 8:1 9:0 10:0 11:1 12:0 13:1 14:1 15:0 16:1 
1 0.860869130663969 1:0 2:2 3:1 4:0 5:0 6:0 7:0 8:1 9:0 10:0 11:2 12:0 13:1 14:1 15:0 16:1 
0 1 1:0 2:0 3:1 4:0 5:0 6:0 7:0 8:0 9:0 10:0 11:1 12:0 13:0 14:1 15:0 16:1 
0 0.5746922607416848 1:0 2:0 3:1 4:0 5:0 6:0 7:0 8:0 9:0 10:0 11:1 12:0 13:0 14:1 15:0 16:1 
0 0.6019819594930691 1:0 2:0 3:1 4:0 5:0 6:0 7:0 8:0 9:0 10:1 11:1 12:0 13:1 14:1 15:1 16:1 
0 0.5204348137246031 1:0 2:0 3:1 4:1 5:0 6:1 7:1 8:0 9:0 10:1 11:1 12:0 13:1 14:1 15:1 16:1 
1 0.2205368506231997 1:0 2:0 3:1 4:0 5:0 6:0 7:0 8:0 9:0 10:1 11:1 12:0 13:1 14:1 15:1 16:1 
0.2603286281050757 0 1:0 2:0 3:1 4:0 5:0 6:0 7:0 8:0 9:0 10:1 11:1 12:0 13:1 14:1 15:1 16:1 
1 0.8480004636458697 1:0 2:1 3:2 4:1 5:0 6:1 7:1 8:1 9:0 10:0 11:2 12:0 13:1 14:1 15:0 16:1 
1 0.1782476455266805 1:0 2:1 3:2 4:0 5:0 6:0 7:0 8:1 9:0 10:0 11:2 12:0 13:1 14:1 15:0 16:1 
1 0 1:0 2:1 3:1 4:0 5:0 6:0 7:0 8:1 9:0 10:0 11:1 12:0 13:1 14:1 15:1 16:1 
1 1 1:0 2:0 3:1 4:0 5:0 6:0 7:0 8:0 9:0 10:0 11:1 12:0 13:1 14:1 15:0 16:1 
0 1 1:0 2:0 3:1 4:1 5:0 6:1 7:0 8:0 9:0 10:1 11:1 12:0 13:0 14:1 15:1 16:1 
0 1 1:0 2:0 3:1 4:1 5:0 6:1 7:0 8:0 9:0 10:1 11:1 12:0 13:0 14:1 15:1 16:1 
0 1 1:0 2:0 3:1 4:1 5:0 6:1 7:0 8:0 9:0 10:1 11:1 12:0 13:0 14:1 15:0 16:1 
0.4601061356917389 0 1:0 2:0 3:1 4:0 5:0 6:0 7:0 8:0 9:0 10:0 11:1 12:1 13:1 14:1 15:1 16:1 
1 0 1:0 2:0 3:1 4:0 5:0 6:0 7:0 8:0 9:0 10:0 11:1 12:1 13:1 14:1 15:1 16:1 
0.894948848417393 0 1:0 2:0 3:1 4:0 5:0 6:0 7:0 8:0 9:0 10:0 11:1 12:1 13:1 14:1 15:1 16:1 
1 1 1:0 2:0 3:1 4:0 5:0 6:0 7:0 8:0 9:0 10:0 11:1 12:1 13:1 14:1 15:0 16:1 
0 1 1:0 2:0 3:1 4:0 5:0 6:0 7:1 8:0 9:0 10:0 11:1 12:0 13:1 14:1 15:0 16:1 
0 0.05517549480430761 1:0 2:2 3:2 4:0 5:0 6:0 7:0 8:1 9:0 10:0 11:2 12:0 13:1 14:1 15:0 16:1 
1 0 1:0 2:2 3:2 4:0 5:0 6:0 7:0 8:1 9:0 10:0 11:2 12:0 13:1 14:1 15:0 16:1 
0.8391579310042948 0.7370992513537491 1:0 2:2 3:2 4:0 5:0 6:0 7:0 8:1 9:0 10:0 11:2 12:0 13:1 14:1 15:0 16:1 
0 0.8584650022406299 1:0 2:0 3:1 4:0 5:0 6:0 7:0 8:0 9:0 10:1 11:1 12:0 13:0 14:1 15:1 16:1 
0 1 1:0 2:0 3:1 4:0 5:0 6:0 7:0 8:0 9:0 10:1 11:1 12:0 13:0 14:1 15:1 16:1 
0 1 1:0 2:0 3:1 4:0 5:0 6:0 7:0 8:0 9:0 10:1 11:1 12:0 13:0 14:1 15:1 16:1 
0 1 1:0 2:0 3:1 4:0 5:0 6:0 7:0 8:0 9:0 10:1 11:1 12:0 13:0 14:1 15:1 16:1 
1 1 1:0 2:1 3:0 4:1 5:1 6:1 7:0 8:1 9:1 10:1 11:0 12:0 13:1 14:1 15:1 16:1 
0 0.003353042175059849 1:0 2:1 3:2 4:0 5:0 6:0 7:0 8:2 9:0 10:0 11:2 12:0 13:0 14:1 15:1 16:1 
0 0.7485302493854713 1:0 2:1 3:2 4:0 5:0 6:0 7:0 8:2 9:0 10:0 11:2 12:0 13:0 14:1 15:1 16:1 
0 0.08199177473850462 1:0 2:1 3:2 4:0 5:0 6:0 7:0 8:2 9:0 10:0 11:2 12:0 13:0 14:1 15:1 16:1 
0 0.056601222485773 1:0 2:0 3:0 4:0 5:0 6:0 7:0 8:0 9:0 10:1 11:0 12:0 13:0 14:1 15:0 16:0 
1 1 1:0 2:1 3:0 4:0 5:0 6:0 7:1 8:2 9:0 10:1 11:0 12:0 13:1 14:1 15:1 16:1 
0 1 1:0 2:2 3:2 4:0 5:0 6:0 7:1 8:1 9:0 10:0 11:2 12:0 13:1 14:1 15:1 16:1 
1 1 1:0 2:2 3:1 4:0 5:0 6:0 7:0 8:1 9:0 10:0 11:2 12:0 13:1 14:1 15:1 16:1 
1 0.3479077564379934 1:0 2:2 3:1 4:0 5:0 6:0 7:1 8:1 9:0 10:0 11:2 12:0 13:1 14:1 15:0 16:1 
1 1 1:0 2:2 3:1 4:0 5:0 6:0 7:0 8:1 9:0 10:0 11:2 12:0 13:1 14:1 15:1 16:1 
0.6893782803371198 1 1:0 2:1 3:1 4:0 5:0 6:0 7:0 8:1 9:0 10:1 11:2 12:0 13:0 14:1 15:1 16:1 
0 0.01316745898928889 1:0 2:0 3:1 4:0 5:0 6:0 7:0 8:0 9:0 10:0 11:2 12:1 13:0 14:1 15:1 16:1 
0 0.09752835325844425 1:0 2:0 3:1 4:0 5:0 6:0 7:0 8:0 9:0 10:0 11:2 12:1 13:0 14:1 15:1 16:1 
0 0.7087308632535756 1:0 2:0 3:1 4:0 5:0 6:0 7:0 8:0 9:0 10:1 11:2 12:1 13:0 14:1 15:1 16:1 
0 1 1:0 2:0 3:1 4:0 5:0 6:0 7:0 8:0 9:0 10:1 11:2 12:1 13:0 14:1 15:1 16:1 
0 0.3828437701092128 1:0 2:0 3:1 4:0 5:0 6:0 7:0 8:0 9:0 10:1 11:2 12:1 13:0 14:1 15:1 16:1 
1 0 1:0 2:0 3:0 4:1 5:1 6:1 7:0 8:0 9:1 10:1 11:0 12:0 13:1 14:1 15:1 16:1 
1 0 1:0 2:0 3:0 4:1 5:1 6:1 7:0 8:0 9:1 10:1 11:0 12:0 13:1 14:1 15:1 16:1 
0.7705965167851144 0 1:0 2:0 3:1 4:1 5:1 6:1 7:1 8:0 9:1 10:1 11:1 12:0 13:1 14:1 15:1 16:1 
0.5620771835689503 0.8593663734864834 1:0 2:0 3:0 4:1 5:1 6:1 7:0 8:0 9:1 10:1 11:0 12:0 13:1 14:1 15:1 16:1 
0 0.02445650309998685 1:0 2:0 3:0 4:0 5:0 6:0 7:0 8:0 9:0 10:1 11:0 12:0 13:0 14:1 15:0 16:1 
0.882646673494224 0 1:0 2:0 3:0 4:0 5:0 6:0 7:0 8:0 9:0 10:1 11:0 12:0 13:0 14:1 15:0 16:1 
0.3644209398680374 1 1:0 2:0 3:0 4:0 5:0 6:0 7:0 8:0 9:0 10:0 11:0 12:0 13:1 14:1 15:1 16:1 
1 1 1:0 2:0 3:0 4:0 5:0 6:0 7:0 8:0 9:0 10:0 11:0 12:0 13:1 14:1 15:1 16:1 
1 1 1:0 2:0 3:0 4:0 5:0 6:0 7:0 8:0 9:0 10:0 11:0 12:0 13:1 14:1 15:1 16:1 
0.6838661460329973 0 1:0 2:0 3:0 4:0 5:0 6:0 7:0 8:0 9:0 10:0 11:0 12:1 13:0 14:1 15:1 16:1 
1 0 1:0 2:0 3:0 4:0 5:0 6:0 7:0 8:0 9:0 10:0 11:0 12:1 13:0 14:1 15:1 16:1 
0.8373451344109447 0 1:0 2:0 3:0 4:0 5:0 6:0 7:0 8:0 9:0 10:0 11:0 12:1 13:0 14:1 15:1 16:1 
0 1 1:0 2:0 3:1 4:0 5:0 6:0 7:0 8:0 9:0 10:0 11:1 12:0 13:0 14:1 15:1 16:1 
0 1 1:0 2:0 3:1 4:1 5:0 6:1 7:0 8:0 9:0 10:0 11:1 12:0 13:0 14:1 15:1 16:1 
0 1 1:0 2:0 3:1 4:1 5:0 6:1 7:0 8:0 9:0 10:0 11:1 12:0 13:0 14:1 15:1 16:1 
0.7303876137192995 0 1:0 2:2 3:2 4:0 5:1 6:0 7:1 8:1 9:1 10:0 11:2 12:0 13:1 14:1 15:0 16:1 
1 0 1:0 2:1 3:2 4:0 5:1 6:0 7:1 8:1 9:1 10:0 11:2 12:0 13:1 14:1 15:0 16:1 
1 1 1:0 2:2 3:0 4:0 5:0 6:0 7:1 8:2 9:0 10:0 11:0 12:0 13:1 14:1 15:1 16:1 
1 1 1:0 2:2 3:0 4:0 5:0 6:0 7:0 8:2 9:0 10:0 11:0 12:0 13:1 14:1 15:1 16:1 
0 1 1:0 2:0 3:1 4:1 5:0 6:1 7:0 8:0 9:0 10:0 11:1 12:0 13:0 14:1 15:1 16:1 
0 1 1:0 2:0 3:1 4:0 5:0 6:0 7:0 8:0 9:0 10:0 11:1 12:0 13:0 14:1 15:1 16:1 
0 1 1:0 2:0 3:1 4:1 5:0 6:1 7:0 8:0 9:0 10:0 11:1 12:0 13:0 14:1 15:1 16:1 
1 0.233168682203725 1:0 2:0 3:0 4:0 5:0 6:0 7:0 8:0 9:0 10:1 11:0 12:0 13:0 14:1 15:0 16:1 
1 1 1:0 2:0 3:0 4:0 5:0 6:0 7:0 8:0 9:0 10:1 11:0 12:0 13:0 14:1 15:0 16:1 
1 1 1:0 2:0 3:0 4:0 5:0 6:0 7:0 8:0 9:0 10:1 11:0 12:0 13:0 14:1 15:0 16:1 
1 1 1:0 2:0 3:0 4:0 5:0 6:0 7:0 8:0 9:0 10:1 11:0 12:0 13:0 14:1 15:0 16:1 
1 1 1:0 2:0 3:0 4:0 5:0 6:0 7:0 8:0 9:0 10:0 11:0 12:1 13:0 14:1 15:0 16:1 
1 1 1:0 2:1 3:1 4:0 5:0 6:0 7:0 8:1 9:0 10:0 11:1 12:0 13:0 14:1 15:1 16:1 
1 0.3814546424603263 1:0 2:1 3:1 4:0 5:0 6:0 7:0 8:1 9:0 10:0 11:1 12:0 13:0 14:1 15:1 16:1 
1 1 1:0 2:1 3:0 4:0 5:0 6:0 7:0 8:1 9:0 10:0 11:0 12:0 13:1 14:1 15:1 16:1 
1 1 1:0 2:1 3:0 4:0 5:0 6:0 7:0 8:1 9:0 10:0 11:0 12:0 13:1 14:1 15:1 16:1 
1 1 1:0 2:1 3:0 4:0 5:0 6:0 7:0 8:1 9:0 10:0 11:0 12:0 13:1 14:1 15:1 16:1 
0.9437666720293868 1 1:0 2:2 3:0 4:0 5:0 6:0 7:0 8:1 9:0 10:1 11:0 12:0 13:0 14:1 15:1 16:1 
-1 1 1:0 2:1 3:0 4:0 5:0 6:0 7:1 8:1 9:0 10:0 11:0 12:0 13:1 14:0 15:0 16:1 
-1 1 1:0 2:1 3:1 4:0 5:0 6:0 7:0 8:1 9:0 10:0 11:1 12:0 13:0 14:1 15:1 16:1 
-1 1 1:0 2:1 3:0 4:0 5:0 6:0 7:0 8:1 9:0 10:0 11:0 12:0 13:1 14:1 15:0 16:1 
-1 1 1:0 2:1 3:0 4:0 5:0 6:0 7:0 8:1 9:0 10:0 11:0 12:0 13:1 14:1 15:0 16:1 
-1 1 1:0 2:0 3:0 4:0 5:0 6:0 7:0 8:0 9:0 10:0 11:0 12:0 13:0 14:1 15:1 16:1 
-1 1 1:0 2:0 3:1 4:0 5:0 6:0 7:0 8:0 9:0 10:0 11:1 12:0 13:1 14:1 15:1 16:1 
-1 1 1:0 2:0 3:1 4:1 5:1 6:1 7:0 8:0 9:1 10:0 11:1 12:0 13:1 14:1 15:1 16:1 
-1 1 1:0 2:0 3:1 4:0 5:0 6:0 7:0 8:0 9:0 10:1 11:1 12:0 13:1 14:1 15:1 16:1 
-1 1 1:0 2:0 3:1 4:0 5:0 6:0 7:0 8:0 9:0 10:1 11:1 12:0 13:1 14:1 15:0 16:1 
-1 1 1:0 2:1 3:1 4:0 5:0 6:0 7:0 8:1 9:0 10:0 11:1 12:0 13:1 14:1 15:0 16:1 
-1 1 1:0 2:1 3:1 4:0 5:0 6:0 7:1 8:1 9:0 10:0 11:1 12:1 13:1 14:1 15:1 16:1 
-1 1 1:0 2:1 3:1 4:0 5:0 6:0 7:1 8:1 9:0 10:0 11:1 12:0 13:1 14:1 15:0 16:1 
-1 0 1:0 2:1 3:1 4:1 5:1 6:1 7:0 8:1 9:1 10:0 11:1 12:0 13:1 14:1 15:0 16:1 
-1 1 1:0 2:1 3:1 4:1 5:0 6:1 7:0 8:1 9:0 10:0 11:1 12:0 13:1 14:1 15:0 16:1 
-1 1 1:0 2:1 3:1 4:1 5:0 6:1 7:1 8:1 9:0 10:0 11:1 12:0 13:1 14:1 15:0 16:1 
-1 1 1:0 2:1 3:1 4:1 5:0 6:1 7:0 8:1 9:0 10:0 11:1 12:0 13:1 14:1 15:0 16:1 
-1 1 1:0 2:0 3:0 4:0 5:0 6:0 7:0 8:0 9:0 10:1 11:0 12:0 13:0 14:1 15:1 16:1 
-1 1 1:0 2:2 3:0 4:0 5:0 6:0 7:0 8:1 9:0 10:0 11:0 12:0 13:0 14:1 15:0 16:1 
-1 1 1:0 2:2 3:0 4:0 5:0 6:0 7:0 8:1 9:0 10:0 11:0 12:0 13:0 14:1 15:0 16:1 
-1 1 1:0 2:1 3:0 4:0 5:0 6:0 7:0 8:1 9:0 10:0 11:0 12:0 13:0 14:1 15:0 16:1 
-1 1 1:0 2:0 3:1 4:0 5:0 6:0 7:0 8:0 9:0 10:0 11:1 12:0 13:0 14:1 15:1 16:1 
-1 0 1:0 2:2 3:1 4:0 5:0 6:0 7:0 8:1 9:0 10:0 11:1 12:1 13:1 14:1 15:0 16:1 
-1 1 1:0 2:0 3:0 4:0 5:0 6:0 7:0 8:0 9:0 10:1 11:0 12:1 13:0 14:1 15:0 16:1 
-1 1 1:0 2:0 3:0 4:1 5:0 6:1 7:0 8:0 9:0 10:1 11:0 12:1 13:0 14:1 15:0 16:1 
-1 1 1:0 2:1 3:0 4:0 5:0 6:0 7:0 8:2 9:0 10:1 11:0 12:0 13:0 14:1 15:1 16:1 
-1 1 1:0 2:1 3:0 4:0 5:0 6:0 7:0 8:1 9:0 10:1 11:0 12:0 13:0 14:1 15:1 16:1 
-1 1 1:0 2:2 3:0 4:0 5:0 6:0 7:0 8:1 9:0 10:1 11:0 12:0 13:0 14:1 15:1 16:1 
-1 1 1:0 2:2 3:0 4:0 5:0 6:0 7:0 8:1 9:0 10:0 11:0 12:0 13:1 14:1 15:0 16:1 
-1 0.2758219468562259 1:0 2:2 3:0 4:0 5:1 6:0 7:0 8:1 9:1 10:0 11:0 12:0 13:1 14:1 15:0 16:1 
-1 1 1:0 2:2 3:0 4:0 5:0 6:0 7:0 8:1 9:0 10:0 11:0 12:0 13:1 14:1 15:0 16:1 
-1 1 1:0 2:1 3:1 4:0 5:0 6:0 7:0 8:1 9:0 10:0 11:2 12:0 13:0 14:1 15:0 16:1 
-1 1 1:0 2:1 3:1 4:0 5:0 6:0 7:0 8:1 9:0 10:0 11:2 12:0 13:0 14:1 15:0 16:1 
-1 1 1:0 2:1 3:0 4:0 5:1 6:0 7:0 8:1 9:1 10:0 11:0 12:0 13:1 14:0 15:0 16:1 
-1 1 1:0 2:1 3:0 4:0 5:0 6:0 7:0 8:1 9:0 10:0 11:0 12:0 13:1 14:0 15:0 16:1 
-1 1 1:0 2:1 3:0 4:0 5:0 6:0 7:0 8:1 9:0 10:1 11:0 12:0 13:0 14:1 15:1 16:1 
-1 1 1:0 2:1 3:0 4:0 5:0 6:0 7:0 8:1 9:0 10:1 11:0 12:0 13:0 14:1 15:1 16:1 
-1 1 1:0 2:1 3:0 4:0 5:0 6:0 7:0 8:1 9:0 10:1 11:0 12:0 13:0 14:1 15:1 16:1 
-1 1 1:0 2:0 3:1 4:1 5:1 6:1 7:0 8:0 9:1 10:1 11:1 12:0 13:1 14:1 15:0 16:1 
-1 1 1:0 2:0 3:1 4:0 5:0 6:0 7:0 8:0 9:0 10:0 11:1 12:1 13:0 14:1 15:0 16:1 
-1 1 1:0 2:0 3:1 4:0 5:0 6:0 7:0 8:0 9:0 10:0 11:1 12:1 13:0 14:1 15:0 16:1 
-1 1 1:0 2:0 3:1 4:0 5:0 6:0 7:0 8:0 9:0 10:0 11:1 12:0 13:0 14:1 15:0 16:1 
-1 1 1:0 2:0 3:0 4:0 5:0 6:0 7:0 8:0 9:0 10:0 11:0 12:0 13:0 14:1 15:1 16:1 
-1 1 1:0 2:0 3:0 4:0 5:0 6:0 7:0 8:0 9:0 10:0 11:0 12:0 13:0 14:1 15:1 16:1 
-1 1 1:0 2:0 3:0 4:0 5:0 6:0 7:0 8:0 9:0 10:0 11:0 12:0 13:0 14:1 15:0 16:1 
-1 1 1:0 2:0 3:0 4:0 5:0 6:0 7:0 8:0 9:0 10:0 11:0 12:0 13:0 14:1 15:0 16:1 
-1 1 1:0 2:2 3:1 4:0 5:0 6:0 7:0 8:1 9:0 10:0 11:1 12:0 13:1 14:1 15:0 16:1 
-1 0.597048982512291 1:0 2:2 3:1 4:0 5:0 6:0 7:0 8:1 9:0 10:0 11:2 12:0 13:1 14:1 15:0 16:1 
-1 1 1:0 2:0 3:1 4:0 5:0 6:0 7:0 8:0 9:0 10:1 11:1 12:0 13:1 14:1 15:1 16:1 
-1 1 1:0 2:1 3:1 4:0 5:0 6:0 7:0 8:1 9:0 10:0 11:2 12:0 13:1 14:1 15:0 16:1 
-1 1 1:0 2:1 3:1 4:0 5:0 6:0 7:0 8:1 9:0 10:0 11:2 12:0 13:1 14:1 15:0 16:1 
-1 1 1:0 2:0 3:1 4:0 5:0 6:0 7:0 8:0 9:0 10:0 11:1 12:0 13:1 14:1 15:0 16:1 
-1 1 1:0 2:0 3:1 4:0 5:0 6:0 7:0 8:0 9:0 10:0 11:1 12:1 13:1 14:1 15:1 16:1 
-1 1 1:0 2:0 3:1 4:0 5:0 6:0 7:0 8:0 9:0 10:0 11:1 12:1 13:1 14:1 15:1 16:1 
-1 1 1:0 2:2 3:2 4:0 5:0 6:0 7:0 8:1 9:0 10:0 11:2 12:0 13:1 14:1 15:0 16:1 
-1 1 1:0 2:2 3:2 4:0 5:0 6:0 7:0 8:1 9:0 10:0 11:2 12:0 13:1 14:1 15:0 16:1 
-1 1 1:0 2:1 3:0 4:0 5:0 6:0 7:0 8:1 9:0 10:0 11:0 12:0 13:1 14:1 15:0 16:1 
-1 1 1:0 2:1 3:0 4:0 5:0 6:0 7:0 8:1 9:0 10:0 11:0 12:0 13:1 14:1 15:0 16:1 
-1 1 1:0 2:1 3:0 4:0 5:0 6:0 7:0 8:1 9:0 10:0 11:0 12:0 13:1 14:1 15:0 16:1 
-1 1 1:0 2:1 3:0 4:0 5:0 6:0 7:0 8:1 9:0 10:0 11:0 12:0 13:1 14:1 15:0 16:1 
-1 1 1:0 2:1 3:0 4:1 5:1 6:1 7:0 8:1 9:1 10:1 11:0 12:0 13:1 14:1 15:1 16:1 
-1 1 1:0 2:1 3:0 4:1 5:1 6:1 7:0 8:1 9:1 10:1 11:0 12:0 13:1 14:1 15:1 16:1 
-1 1 1:0 2:1 3:2 4:0 5:0 6:0 7:0 8:2 9:0 10:0 11:2 12:0 13:0 14:1 15:1 16:1 
-1 1 1:0 2:0 3:0 4:0 5:0 6:0 7:0 8:0 9:0 10:1 11:0 12:0 13:0 14:1 15:0 16:1 
-1 1 1:0 2:1 3:0 4:0 5:0 6:0 7:0 8:2 9:0 10:1 11:0 12:0 13:1 14:1 15:0 16:1 
-1 1 1:0 2:1 3:0 4:0 5:0 6:0 7:1 8:2 9:0 10:1 11:0 12:0 13:1 14:1 15:0 16:1 
-1 1 1:0 2:2 3:1 4:0 5:0 6:0 7:0 8:1 9:0 10:0 11:2 12:0 13:1 14:1 15:1 16:1 
-1 1 1:0 2:2 3:1 4:0 5:0 6:0 7:1 8:1 9:0 10:0 11:2 12:0 13:1 14:1 15:0 16:1 
-1 1 1:0 2:2 3:1 4:0 5:0 6:0 7:0 8:1 9:0 10:1 11:1 12:0 13:0 14:1 15:1 16:1 
-1 1 1:0 2:0 3:0 4:1 5:1 6:1 7:0 8:0 9:1 10:1 11:0 12:0 13:1 14:1 15:1 16:1 
-1 1 1:0 2:2 3:1 4:2 5:0 6:1 7:0 8:1 9:0 10:0 11:1 12:0 13:1 14:1 15:0 16:1 
-1 0 1:0 2:2 3:1 4:2 5:1 6:1 7:0 8:1 9:1 10:0 11:1 12:0 13:1 14:1 15:0 16:1 
-1 1 1:0 2:2 3:1 4:2 5:0 6:1 7:0 8:1 9:0 10:0 11:1 12:0 13:1 14:1 15:0 16:1 
-1 0.4167251280497182 1:0 2:2 3:1 4:2 5:1 6:1 7:0 8:1 9:1 10:0 11:1 12:0 13:1 14:1 15:0 16:1 
-1 1 1:0 2:0 3:1 4:1 5:0 6:1 7:0 8:0 9:0 10:0 11:1 12:0 13:0 14:1 15:1 16:1 
-1 1 1:0 2:1 3:1 4:0 5:0 6:0 7:0 8:1 9:0 10:0 11:2 12:0 13:1 14:1 15:0 16:1 
-1 0.5153143261998334 1:0 2:2 3:2 4:0 5:1 6:0 7:1 8:1 9:1 10:0 11:2 12:0 13:1 14:1 15:0 16:1 
-1 0 1:0 2:2 3:1 4:0 5:1 6:0 7:1 8:1 9:1 10:0 11:2 12:0 13:1 14:1 15:0 16:1 
-1 1 1:0 2:1 3:0 4:0 5:0 6:0 7:0 8:2 9:0 10:0 11:0 12:0 13:1 14:1 15:1 16:1 
-1 1 1:0 2:1 3:0 4:0 5:0 6:0 7:0 8:2 9:0 10:0 11:0 12:0 13:1 14:1 15:1 16:1 
-1 1 1:0 2:0 3:0 4:0 5:0 6:0 7:0 8:0 9:0 10:1 11:0 12:0 13:0 14:1 15:0 16:1 
-1 1 1:0 2:0 3:0 4:0 5:0 6:0 7:0 8:0 9:0 10:0 11:0 12:1 13:0 14:1 15:0 16:1 
-1 1 1:0 2:0 3:0 4:0 5:0 6:0 7:0 8:0 9:0 10:0 11:0 12:1 13:0 14:1 15:0 16:1 
-1 1 1:0 2:0 3:0 4:0 5:0 6:0 7:0 8:0 9:0 10:0 11:0 12:1 13:0 14:1 15:0 16:1 
-1 1 1:0 2:1 3:1 4:0 5:0 6:0 7:0 8:1 9:0 10:0 11:1 12:0 13:0 14:1 15:1 16:1 
-1 1 1:0 2:1 3:1 4:0 5:1 6:0 7:0 8:1 9:1 10:0 11:1 12:0 13:0 14:1 15:1 16:1 
-1 1 1:0 2:2 3:0 4:0 5:0 6:0 7:0 8:1 9:0 10:1 11:0 12:0 13:0 14:1 15:1 16:1 
-1 -1 1:0 2:2 3:0 4:0 5:0 6:0 7:0 8:1 9:0 10:0 11:0 12:0 13:1 14:0 15:0 16:1 
-1 -1 1:0 2:1 3:0 4:0 5:0 6:0 7:0 8:1 9:0 10:0 11:0 12:0 13:1 14:1 15:0 16:1 
-1 -1 1:0 2:1 3:0 4:0 5:0 6:0 7:0 8:1 9:0 10:0 11:0 12:0 13:1 14:1 15:0 16:1 
-1 -1 1:0 2:1 3:0 4:0 5:0 6:0 7:1 8:1 9:0 10:0 11:0 12:0 13:1 14:1 15:0 16:1 
-1 -1 1:0 2:0 3:0 4:0 5:0 6:0 7:0 8:0 9:0 10:1 11:0 12:0 13:0 14:1 15:1 16:1 
-1 -1 1:0 2:0 3:0 4:0 5:0 6:0 7:0 8:0 9:0 10:1 11:0 12:0 13:0 14:1 15:1 16:1 
-1 -1 1:0 2:0 3:0 4:0 5:0 6:0 7:0 8:0 9:0 10:1 11:0 12:0 13:0 14:1 15:1 16:1 
-1 -1 1:0 2:0 3:0 4:0 5:0 6:0 7:0 8:0 9:0 10:0 11:0 12:0 13:0 14:1 15:1 16:1 
-1 -1 1:0 2:0 3:0 4:0 5:0 6:0 7:0 8:0 9:0 10:0 11:0 12:0 13:0 14:1 15:0 16:1 
-1 -1 1:0 2:0 3:1 4:0 5:0 6:0 7:0 8:0 9:0 10:1 11:1 12:0 13:1 14:1 15:0 16:1 
-1 -1 1:0 2:1 3:1 4:0 5:0 6:0 7:1 8:1 9:0 10:0 11:1 12:0 13:1 14:1 15:0 16:1 
-1 -1 1:0 2:1 3:1 4:1 5:0 6:1 7:0 8:1 9:0 10:0 11:1 12:0 13:1 14:1 15:0 16:1 
-1 -1 1:0 2:1 3:1 4:1 5:0 6:1 7:0 8:1 9:0 10:0 11:1 12:0 13:1 14:1 15:0 16:1 
-1 -1 1:0 2:1 3:1 4:1 5:0 6:1 7:0 8:1 9:0 10:0 11:1 12:0 13:1 14:1 15:0 16:1 
-1 -1 1:0 2:0 3:0 4:0 5:0 6:0 7:0 8:0 9:0 10:1 11:0 12:0 13:0 14:1 15:1 16:1 
-1 -1 1:0 2:2 3:0 4:0 5:0 6:0 7:0 8:1 9:0 10:0 11:0 12:0 13:0 14:1 15:0 16:1 
-1 -1 1:0 2:1 3:0 4:2 5:0 6:1 7:0 8:1 9:0 10:0 11:0 12:0 13:0 14:1 15:0 16:1 
-1 -1 1:0 2:1 3:0 4:2 5:0 6:1 7:0 8:1 9:0 10:0 11:0 12:0 13:0 14:1 15:0 16:1 
-1 -0 1:0 2:0 3:1 4:0 5:0 6:0 7:0 8:0 9:0 10:0 11:1 12:0 13:0 14:1 15:1 16:1 
-1 -0 1:0 2:0 3:1 4:0 5:0 6:0 7:0 8:0 9:0 10:0 11:1 12:0 13:0 14:1 15:1 16:1 
-1 -0 1:0 2:0 3:1 4:0 5:0 6:0 7:0 8:0 9:0 10:1 11:2 12:0 13:0 14:1 15:0 16:1 
-1 -1 1:0 2:0 3:1 4:0 5:0 6:0 7:0 8:0 9:0 10:1 11:2 12:1 13:0 14:1 15:0 16:1 
-1 -1 1:0 2:1 3:0 4:0 5:0 6:0 7:0 8:1 9:0 10:0 11:0 12:0 13:0 14:1 15:0 16:1 
-1 -1 1:0 2:1 3:0 4:0 5:0 6:0 7:0 8:1 9:0 10:0 11:0 12:0 13:0 14:1 15:0 16:1 
-1 -1 1:0 2:2 3:0 4:0 5:0 6:0 7:0 8:1 9:0 10:0 11:0 12:0 13:0 14:1 15:0 16:1 
-1 -0.2975614710325274 1:0 2:0 3:0 4:1 5:0 6:1 7:0 8:0 9:0 10:1 11:0 12:0 13:0 14:1 15:1 16:1 
-1 -0 1:0 2:0 3:0 4:2 5:0 6:1 7:0 8:0 9:0 10:1 11:0 12:0 13:0 14:1 15:1 16:1 
-1 -0.3793428696782196 1:0 2:0 3:1 4:0 5:0 6:0 7:0 8:0 9:0 10:1 11:1 12:0 13:0 14:1 15:0 16:1 
-1 -0 1:0 2:0 3:1 4:0 5:0 6:0 7:0 8:0 9:0 10:1 11:2 12:0 13:0 14:1 15:1 16:1 
-1 -0 1:0 2:0 3:1 4:0 5:0 6:0 7:0 8:0 9:0 10:1 11:2 12:0 13:0 14:1 15:1 16:1 
-1 -0.308746164458858 1:0 2:0 3:1 4:0 5:0 6:0 7:0 8:0 9:0 10:1 11:2 12:1 13:0 14:1 15:1 16:1 
-1 -1 1:0 2:1 3:0 4:0 5:0 6:0 7:0 8:2 9:0 10:1 11:0 12:0 13:0 14:1 15:1 16:1 
-1 -1 1:0 2:2 3:0 4:0 5:0 6:0 7:0 8:1 9:0 10:1 11:0 12:0 13:0 14:1 15:1 16:1 
-1 -1 1:0 2:0 3:1 4:0 5:0 6:0 7:0 8:0 9:0 10:0 11:1 12:0 13:1 14:1 15:0 16:1 
-1 -1 1:0 2:0 3:1 4:0 5:0 6:0 7:0 8:0 9:0 10:0 11:1 12:0 13:1 14:1 15:0 16:1 
-1 -1 1:0 2:0 3:1 4:0 5:0 6:0 7:0 8:0 9:0 10:0 11:1 12:0 13:1 14:1 15:0 16:1 
-1 -0 1:0 2:0 3:2 4:1 5:0 6:1 7:0 8:0 9:0 10:0 11:2 12:1 13:0 14:1 15:1 16:1 
-1 -0.3419174629551012 1:0 2:0 3:2 4:1 5:0 6:1 7:0 8:0 9:0 10:0 11:2 12:1 13:0 14:1 15:1 16:1 
-1 -1 1:0 2:0 3:2 4:1 5:0 6:1 7:0 8:0 9:0 10:0 11:2 12:1 13:0 14:1 15:1 16:1 
-1 -1 1:0 2:1 3:1 4:0 5:0 6:0 7:0 8:1 9:0 10:0 11:1 12:0 13:0 14:1 15:0 16:1 
-1 -1 1:0 2:1 3:1 4:0 5:0 6:0 7:0 8:1 9:0 10:0 11:2 12:0 13:0 14:1 15:0 16:1 
-1 -0 1:0 2:0 3:1 4:0 5:0 6:0 7:0 8:0 9:0 10:1 11:2 12:0 13:0 14:1 15:0 16:1 
-1 -0 1:0 2:0 3:1 4:0 5:0 6:0 7:0 8:0 9:0 10:1 11:2 12:0 13:0 14:1 15:0 16:1 
-1 -1 1:0 2:0 3:1 4:1 5:0 6:1 7:0 8:0 9:0 10:1 11:1 12:0 13:1 14:1 15:0 16:1 
-1 -1 1:0 2:0 3:1 4:1 5:0 6:1 7:0 8:0 9:0 10:1 11:1 12:0 13:1 14:1 15:0 16:1 
-1 -1 1:0 2:0 3:0 4:0 5:1 6:0 7:0 8:0 9:1 10:0 11:0 12:0 13:1 14:1 15:1 16:1 
-1 -1 1:0 2:0 3:0 4:0 5:0 6:0 7:0 8:0 9:0 10:0 11:0 12:0 13:1 14:1 15:1 16:1 
-1 -1 1:0 2:0 3:0 4:0 5:0 6:0 7:0 8:0 9:0 10:0 11:0 12:0 13:1 14:1 15:1 16:1 
-1 -0.6927451293042988 1:0 2:0 3:1 4:1 5:0 6:1 7:0 8:0 9:0 10:0 11:2 12:0 13:0 14:1 15:0 16:1 
-1 -1 1:0 2:0 3:1 4:0 5:0 6:0 7:0 8:0 9:0 10:0 11:1 12:1 13:0 14:1 15:0 16:1 
-1 -1 1:0 2:0 3:0 4:0 5:0 6:0 7:0 8:0 9:0 10:0 11:0 12:0 13:0 14:1 15:1 16:1 
-1 -0 1:0 2:0 3:1 4:0 5:0 6:0 7:0 8:0 9:0 10:0 11:1 12:0 13:0 14:1 15:1 16:1 
-1 -0.7845972861890635 1:0 2:0 3:1 4:0 5:0 6:0 7:0 8:0 9:0 10:0 11:1 12:0 13:0 14:1 15:1 16:1 
-1 -1 1:0 2:0 3:1 4:0 5:0 6:0 7:0 8:0 9:0 10:0 11:1 12:0 13:0 14:1 15:1 16:1 
-1 -1 1:0 2:0 3:1 4:0 5:0 6:0 7:0 8:0 9:0 10:0 11:1 12:0 13:0 14:1 15:1 16:1 
-1 -0 1:0 2:0 3:1 4:1 5:0 6:1 7:0 8:0 9:0 10:1 11:1 12:0 13:0 14:1 15:0 16:1 
-1 -0 1:0 2:0 3:1 4:1 5:0 6:1 7:0 8:0 9:0 10:1 11:1 12:0 13:0 14:1 15:1 16:1 
-1 -0 1:0 2:0 3:1 4:1 5:0 6:1 7:0 8:0 9:0 10:1 11:1 12:0 13:0 14:1 15:1 16:1 
-1 -0 1:0 2:0 3:1 4:1 5:0 6:1 7:0 8:0 9:0 10:1 11:1 12:0 13:0 14:1 15:1 16:1 
-1 -0 1:0 2:0 3:1 4:1 5:0 6:1 7:0 8:0 9:0 10:1 11:1 12:0 13:0 14:1 15:1 16:1 
-1 -0 1:0 2:0 3:1 4:1 5:0 6:1 7:0 8:0 9:0 10:1 11:1 12:0 13:0 14:1 15:1 16:1 
-1 -1 1:0 2:2 3:0 4:0 5:0 6:0 7:0 8:1 9:0 10:0 11:0 12:0 13:1 14:0 15:0 16:1 
-1 -1 1:0 2:2 3:0 4:0 5:0 6:0 7:0 8:1 9:0 10:0 11:0 12:0 13:1 14:0 15:0 16:1 
-1 -1 1:0 2:2 3:0 4:0 5:0 6:0 7:0 8:1 9:0 10:0 11:0 12:0 13:1 14:0 15:0 16:1 
-1 -1 1:0 2:2 3:0 4:0 5:0 6:0 7:1 8:1 9:0 10:0 11:0 12:0 13:1 14:0 15:0 16:1 
-1 -1 1:1 2:2 3:0 4:0 5:0 6:0 7:1 8:1 9:0 10:0 11:0 12:0 13:1 14:0 15:0 16:1 
-1 -1 1:0 2:2 3:1 4:0 5:0 6:0 7:0 8:1 9:0 10:0 11:1 12:0 13:1 14:1 15:0 16:1 
-1 -1 1:0 2:0 3:1 4:0 5:0 6:0 7:0 8:0 9:0 10:0 11:1 12:0 13:0 14:1 15:0 16:1 
-1 -1 1:0 2:0 3:1 4:0 5:0 6:0 7:0 8:0 9:0 10:0 11:1 12:0 13:0 14:1 15:0 16:1 
-1 -1 1:0 2:1 3:2 4:0 5:0 6:0 7:0 8:1 9:0 10:0 11:2 12:0 13:1 14:1 15:0 16:1 
-1 -1 1:0 2:0 3:1 4:0 5:0 6:0 7:0 8:0 9:0 10:0 11:1 12:0 13:1 14:1 15:0 16:1 
-1 -1 1:0 2:0 3:1 4:0 5:0 6:0 7:0 8:0 9:0 10:0 11:1 12:0 13:1 14:1 15:0 16:1 
-1 -0 1:0 2:0 3:1 4:1 5:0 6:1 7:0 8:0 9:0 10:1 11:1 12:0 13:0 14:1 15:0 16:1 
-1 -0 1:0 2:0 3:1 4:1 5:0 6:1 7:0 8:0 9:0 10:1 11:1 12:0 13:0 14:1 15:1 16:1 
-1 -1 1:0 2:0 3:1 4:0 5:0 6:0 7:1 8:0 9:0 10:0 11:1 12:1 13:1 14:1 15:1 16:1 
-1 -1 1:0 2:1 3:0 4:0 5:0 6:0 7:0 8:1 9:0 10:0 11:0 12:0 13:1 14:1 15:0 16:1 
-1 -0 1:0 2:0 3:1 4:0 5:0 6:0 7:0 8:0 9:0 10:1 11:1 12:0 13:0 14:1 15:1 16:1 
-1 -1 1:0 2:1 3:0 4:1 5:1 6:1 7:0 8:1 9:1 10:1 11:0 12:0 13:1 14:1 15:1 16:1 
-1 -1 1:0 2:1 3:0 4:1 5:1 6:1 7:0 8:1 9:1 10:1 11:0 12:0 13:1 14:1 15:1 16:1 
-1 -1 1:0 2:1 3:2 4:0 5:0 6:0 7:0 8:2 9:0 10:0 11:2 12:0 13:0 14:1 15:1 16:1 
-1 -1 1:0 2:0 3:0 4:0 5:0 6:0 7:0 8:0 9:0 10:1 11:0 12:0 13:0 14:1 15:0 16:1 
-1 -1 1:0 2:0 3:0 4:0 5:0 6:0 7:0 8:0 9:0 10:1 11:0 12:0 13:0 14:1 15:0 16:1 
-1 -1 1:0 2:0 3:0 4:0 5:0 6:0 7:0 8:0 9:0 10:1 11:0 12:0 13:0 14:1 15:0 16:1 
-1 -1 1:0 2:1 3:0 4:0 5:0 6:0 7:0 8:2 9:0 10:1 11:0 12:0 13:1 14:1 15:0 16:1 
-1 -1 1:0 2:1 3:0 4:0 5:0 6:0 7:0 8:2 9:0 10:1 11:0 12:0 13:1 14:1 15:0 16:1 
-1 -1 1:0 2:2 3:1 4:0 5:0 6:0 7:1 8:1 9:0 10:0 11:2 12:0 13:1 14:1 15:1 16:1 
-1 -1 1:0 2:2 3:2 4:0 5:0 6:0 7:1 8:1 9:0 10:0 11:2 12:0 13:1 14:1 15:1 16:1 
-1 -1 1:0 2:2 3:2 4:0 5:0 6:0 7:0 8:1 9:0 10:0 11:2 12:0 13:1 14:1 15:1 16:1 
-1 -1 1:0 2:2 3:1 4:0 5:0 6:0 7:1 8:1 9:0 10:0 11:2 12:0 13:1 14:1 15:1 16:1 
-1 -1 1:0 2:1 3:1 4:0 5:0 6:0 7:0 8:1 9:0 10:1 11:2 12:0 13:0 14:1 15:1 16:1 
-1 -1 1:0 2:1 3:1 4:0 5:0 6:0 7:0 8:1 9:0 10:1 11:2 12:0 13:0 14:1 15:1 16:1 
-1 -1 1:0 2:1 3:1 4:0 5:0 6:0 7:0 8:1 9:0 10:1 11:2 12:0 13:0 14:1 15:1 16:1 
-1 -1 1:0 2:0 3:0 4:0 5:0 6:0 7:0 8:0 9:0 10:0 11:0 12:0 13:1 14:1 15:1 16:1 
-1 -1 1:0 2:2 3:1 4:2 5:0 6:1 7:0 8:1 9:0 10:0 11:1 12:0 13:1 14:1 15:0 16:1 
-1 -0 1:0 2:0 3:1 4:1 5:0 6:1 7:0 8:0 9:0 10:0 11:1 12:0 13:0 14:1 15:1 16:1 
-1 -1 1:0 2:1 3:0 4:0 5:0 6:0 7:1 8:2 9:0 10:0 11:0 12:0 13:1 14:1 15:1 16:1 
-1 -0 1:0 2:0 3:1 4:1 5:0 6:1 7:0 8:0 9:0 10:0 11:1 12:0 13:0 14:1 15:1 16:1 
-1 -0 1:0 2:0 3:1 4:1 5:0 6:1 7:0 8:0 9:0 10:0 11:1 12:0 13:0 14:1 15:1 16:1 
-1 -1 1:0 2:0 3:0 4:0 5:0 6:0 7:0 8:0 9:0 10:0 11:0 12:1 13:0 14:1 15:0 16:1 
-1 -1 1:0 2:2 3:1 4:0 5:1 6:0 7:0 8:1 9:1 10:0 11:1 12:0 13:0 14:1 15:1 16:1 
-1 -1 1:0 2:1 3:0 4:0 5:0 6:0 7:0 8:1 9:0 10:0 11:0 12:0 13:1 14:1 15:1 16:1 
-1 -1 1:0 2:1 3:0 4:0 5:0 6:0 7:0 8:1 9:0 10:0 11:0 12:0 13:1 14:1 15:1 16:1 
-1 -1 1:0 2:2 3:0 4:0 5:0 6:0 7:0 8:1 9:0 10:1 11:0 12:0 13:0 14:1 15:1 16:1 
-1 -1 1:0 2:2 3:0 4:0 5:0 6:0 7:0 8:1 9:0 10:1 11:0 12:0 13:0 14:1 15:1 16:1 
-1 -1 1:0 2:2 3:0 4:0 5:0 6:0 7:0 8:1 9:0 10:1 11:0 12:0 13:0 14:1 15:1 16:1 
